0
2.331733618038192e-05
-3.7827975097350794e-05
-4.399334355397558e-05
-3.66005631770884e-05
-4.122895858514009e-05
-3.55628915525026e-05
-4.826085009444876e-05
1.021883885651378e-05
4.3927986837658805e-05
-4.116493099126373e-05
9.357436633551232e-06
3.935447036591652e-06
1.5086717209723195e-05
-3.8234709924247786e-05
-2.049055637694024e-05
7.476427586078504e-06
5.275033878138825e-05
5.750887276129638e-06
4.436169106777452e-05
-5.2695102756159175e-05
-3.088973700997886e-05
-2.539957118180915e-05
5.079820758721211e-05
-4.1341022289427976e-05
7.622482776095256e-05
-5.3922954549058086e-05
6.280104197948012e-05
5.7891583348923323e-05
6.346022811622551e-05
2.0738498649684763e-05
-6.3411626876124694e-06
-6.512789109109719e-05
-7.846961931408268e-05
-2.7601641110231413e-05
5.152050721817435e-05
-4.0304965086510625e-05
7.506844506768032e-05
-8.761433643851159e-06
-2.845294962229902e-05
-3.262442678956489e-05
-9.773805367528718e-07
7.299567927908879e-05
3.461972477619315e-05
5.481020761000858e-05
7.719789935443888e-05
7.893503641467445e-05
2.9122847552992965e-05
-8.854222421649394e-06
-0.00011199017385724332
1.458618465151327e-05
