0
-1.7688343420393652e-05
5.3886671485916116e-08
7.052382496450848e-05
0.00010003359712749609
-1.6996467906882373e-05
-6.36868526071558e-05
1.7743440234339315e-05
-3.2487078720911045e-05
-6.2427319494862885e-06
5.3637919073755145e-05
-4.744537102279651e-06
-8.165909213284444e-05
-1.4266316274837119e-05
-0.00010196273419823848
8.030029147178953e-05
3.448387481269222e-05
3.5002266658477195e-06
2.810285831054691e-05
7.529995772951475e-05
1.094444180931185e-06
0.00012745869692740681
4.116510859329547e-05
6.099827652683042e-07
6.817048384924633e-06
-5.949441135381191e-06
5.032670314111707e-05
5.228765409580583e-05
-7.500468524256854e-05
1.405043001984018e-05
9.118004623522952e-06
-7.465010300477681e-05
2.846818488694861e-05
5.3308330748087425e-05
-3.730583232541129e-05
-1.9107721605258466e-05
6.349029607968878e-06
6.12622789548125e-05
-4.384857974969575e-05
-1.2948697285778674e-05
4.897438470916842e-05
1.3180832390116706e-05
-3.0700353167852636e-05
-0.00014099367115865863
-1.1425333737763369e-05
6.81481760756611e-05
6.212887524595586e-05
1.5962565489516952e-05
-1.8639236323830583e-05
-1.415734081530747e-05
3.968856900115488e-05
