0
-1.3567634702612986e-05
1.2699700013974215e-05
1.5773796966913578e-05
5.694846147608633e-05
4.4484847124378535e-05
4.591450598600276e-06
7.770411627754056e-05
2.791732926402033e-05
-3.019943968943514e-05
-3.89700714967263e-08
-4.297183458247555e-05
-6.499612631990885e-05
-8.651218132191801e-06
3.6418980352386065e-05
-2.021402104116182e-05
2.005518330748041e-06
-5.422674733211544e-05
-2.6963673677194673e-05
2.8950865042646827e-05
1.282635794591489e-05
-4.9475544287442135e-06
0.00011150639537977089
3.900292008195025e-06
4.666265607537868e-06
-1.9091556148878016e-05
7.09426590373438e-05
-4.873902443961653e-05
7.409994233050613e-05
-3.870653126592464e-05
8.850523904435046e-05
1.082808440679032e-05
2.234517553674797e-05
-9.432277109888821e-05
-3.920440786546005e-05
5.468963078140245e-05
6.335431497702694e-05
5.2474655312095935e-05
2.5198140032216453e-06
9.34769101191282e-05
5.068952472473943e-05
6.442651411341766e-05
-6.44947880026104e-05
-6.582898574143124e-05
2.7516362984028343e-06
8.892889354772816e-05
3.100164055924291e-05
-8.771048797062197e-05
6.848059550219523e-06
-9.088563132857191e-05
0.0001066566634392259
