0
-4.288058765191868e-06
-4.525301436876498e-06
4.317105259019024e-06
7.648196618636516e-05
-2.024856578613813e-05
-5.807669625813704e-05
-1.3280927721307036e-05
1.517302502944137e-05
-3.7752402651551485e-05
-2.8893101406432994e-05
-3.116124063289558e-05
-6.481591267845815e-06
5.972349858308528e-05
3.090808927694472e-05
-3.8192098342320415e-05
-4.689417817904761e-06
4.535527128707295e-05
-2.668913030596022e-05
-3.1530262023337745e-05
-3.221547200635884e-05
-0.00010256049265740444
2.9048183422468905e-05
-8.91846938467252e-06
5.11611707125825e-05
6.956107950949085e-05
-1.9858784313763633e-05
-4.440169730571806e-05
-3.4813256742227898e-06
7.903221651682371e-05
5.97745626580063e-05
-3.909247430186537e-05
-6.596973548693418e-05
3.9693934409201606e-05
2.8048155113500965e-05
8.836100972116073e-05
-1.8180532421148756e-05
5.1885993978918056e-05
1.0693414646483369e-05
-8.225329082015616e-05
-1.314058022568179e-05
2.6506862942023865e-05
-2.5501139264863734e-06
1.6839655797323346e-05
1.0576842663747465e-05
3.5399812441358646e-05
-4.7481969801567775e-05
-3.142479323305709e-05
-6.079966190597899e-05
2.301527219747774e-05
-7.563094664977776e-06
