0
3.389728902418057e-05
1.9657331652102145e-05
-5.718899481536373e-06
0.00010362998290054227
1.376896971752525e-05
2.4951693972691567e-05
-2.8607417882946815e-05
-5.780315756392949e-05
8.620636787713268e-05
2.679979891968061e-06
3.0056766852216935e-05
-5.1383231056775234e-05
-0.0001028511561159695
4.4867691996938906e-05
3.009752315628831e-05
-5.60524486902838e-06
1.0423938210050192e-05
6.191472887149203e-05
5.454806826290246e-05
-6.200230730698568e-07
-2.7555033079728197e-09
3.4703321335281e-05
-2.0311086570926754e-05
3.7656353703361854e-05
9.039998551030014e-05
-2.268234501263517e-05
2.1270333267125883e-05
3.828489140115626e-05
-9.423097734343532e-05
-3.537872745254177e-05
1.6216672176505746e-05
-2.010470910603091e-05
6.249848763329823e-05
-4.933334987327612e-05
-4.733005860735214e-05
3.36076193976329e-05
-2.4833344703172535e-05
4.977211917442996e-05
-2.7417271310621256e-05
-1.998884561050062e-05
-2.821157532336798e-05
-7.063457788863983e-05
5.826246939212642e-05
-1.5271870497667648e-06
-5.5595627423768036e-05
-6.293949877756483e-06
6.205534339333727e-06
3.413845951656734e-05
6.915299093129486e-05
3.2365931145322343e-06
