0
2.656461108267405e-05
1.0350570032372991e-05
3.026560679712662e-05
-2.3120719590962154e-05
3.203754636987324e-05
-6.0682846230654085e-05
4.2809728588419756e-05
3.237064432904797e-06
-5.049868339128522e-06
1.4502434114981934e-05
0.00011946719610420919
4.802898366919938e-05
2.2830381100534756e-05
5.228949833977795e-05
5.5364039953965674e-05
-5.9330810462443396e-05
-6.371191490809082e-06
-7.080846719716415e-05
-4.128325641768338e-05
-0.00013811718983345743
4.514240862615067e-05
-4.9404232490696017e-05
-1.7486477986966118e-06
4.284836210802408e-05
-6.909725255244098e-05
-1.2331578030922717e-05
5.606450727733907e-05
1.0649055824917853e-05
8.13780935625727e-05
4.120875272684728e-05
3.568345797738667e-05
-2.225828507540816e-05
3.7551071838900687e-05
-5.907915193521534e-07
-1.0068298729501231e-05
5.742200362408986e-05
3.239412314839187e-05
-6.166036333324377e-05
7.076000914557154e-05
1.5325411699845456e-05
-5.273594084479706e-05
4.775135038047117e-05
3.901786302782381e-05
8.036640302763883e-05
-1.3571695515117709e-05
-2.0085416109859373e-05
6.810597716044812e-05
2.278936360681585e-05
3.445559296424865e-05
6.127921522570498e-05
