0
8.168667587401264e-05
-3.806697859862563e-05
-1.612857823628703e-05
8.859453348065483e-05
5.067809265860993e-06
4.410095351326953e-05
6.675003422404583e-06
-7.108081975171257e-05
5.555084798072737e-06
-3.7720724334195086e-05
-2.897038255563578e-05
5.776355228083513e-05
6.276387747404274e-05
4.0963106750373305e-05
6.048103243434875e-05
-1.9471976133962442e-05
9.439993008312104e-05
4.865384905691061e-05
2.5299565196869998e-05
-3.865424033977982e-05
4.84070938969607e-06
2.5162686706465387e-05
-6.556211863856134e-05
1.7884799502072995e-05
-3.5913140706694593e-05
-2.4509640283107635e-06
5.0980071583216103e-05
3.669691894758981e-05
0.00012540621118105013
0.00011547329034479405
6.494813186184127e-05
8.910933472428886e-05
4.999799844303622e-05
-2.125589356110918e-05
-1.4843598467310888e-05
8.569319302891787e-06
2.6258604916385875e-06
4.560759715812129e-05
-4.6355894812436217e-05
-5.628612151978091e-05
-0.0001040352887259788
3.068749865875002e-05
3.979645348685366e-05
-9.215025303767672e-07
9.697791818129445e-06
5.503088240673593e-05
6.179162149151398e-06
-5.205720368467536e-05
2.4125297771407954e-05
-2.1382120913223362e-05
