0
6.805099847558339e-06
1.9040498188254385e-06
-1.982672189394698e-05
-3.162791457701522e-05
-4.931052885907821e-05
-2.538370919918895e-05
-6.951878959525662e-05
-2.8497367198003386e-05
-9.673216110732436e-05
-3.984983316963493e-05
2.49340949710552e-05
8.462504539331561e-06
6.11588396584436e-05
6.465727550691566e-05
1.2707678827797876e-06
-7.983819674452428e-05
1.342799369537127e-05
4.570437517685006e-05
6.279910244896498e-05
3.389961146186209e-05
2.4077452632120864e-05
-7.952248640335927e-05
5.3683218746694296e-05
-2.0184174893154075e-05
-3.331136186678406e-05
9.385106868573138e-05
2.5160239276145175e-05
-1.7849554356683606e-05
-9.645896846292478e-05
1.011817907343892e-05
-8.373324458636402e-06
5.011063484057529e-05
5.164661386054221e-05
-3.780145157800245e-05
1.847356737408977e-05
7.561915442663275e-05
-3.496571494210589e-05
3.2379481434692683e-06
6.118938759590478e-06
-8.016089589227015e-05
1.8740205190677433e-06
2.394829317239177e-05
-3.650749336686161e-05
-1.494229164418322e-05
1.7008111089847708e-06
-4.101472200497753e-06
4.686093312874774e-05
4.919140542487124e-05
-8.35365514514927e-05
-7.235705728389575e-05
