0
4.18901398063639e-05
2.2549579276606765e-05
7.26666118237871e-05
-8.667963605084836e-06
3.900477884513526e-05
-1.4393888226324857e-05
-3.980520219811991e-05
-3.479825088549448e-05
2.5485060976324244e-05
3.167124834596905e-05
-4.673762701769233e-05
5.0189770462672526e-05
1.105474788048619e-05
-1.4690627170337448e-05
-6.437065809726291e-06
2.4657410873807238e-05
-5.9671866836361776e-05
-1.0416526174857789e-05
5.563006309580268e-05
-2.4417655678507094e-05
3.55123259460518e-05
-1.922897516678738e-05
5.2803619200545176e-05
6.253414905913463e-06
-4.2476134274497043e-05
1.9888589892535362e-05
7.873572839619123e-05
-1.7502747125481337e-05
-7.427791185993144e-05
-4.3061790044397965e-05
-2.7455700667448924e-05
1.746135256600777e-05
-2.7545268274058128e-05
2.5573069858119984e-05
5.4881284893513876e-05
-1.8635858803732837e-05
-4.656361993786748e-05
6.543727939604451e-06
4.7436352853016063e-05
6.162782006696189e-05
2.380685327410313e-05
2.098892765806928e-05
2.591870766504686e-05
-5.216281669282479e-05
-3.5112325533924976e-05
1.3669110385998887e-05
-5.6407427531001904e-05
4.3513790466154346e-05
3.450970711325133e-05
1.8120326187392556e-05
