0
-1.761965363048263e-06
-2.9394622433917474e-05
-2.7307830030946815e-05
-7.675058615742156e-05
4.225690531288137e-05
2.3896273128157538e-05
-8.04032001373932e-06
-5.1182349100825e-05
-3.738470827788477e-05
-9.835848628308438e-05
-3.9338824909795225e-05
3.526291901042451e-05
1.3858142528926348e-05
3.41702561503909e-05
8.604129877442118e-06
6.5085194119326e-05
2.1115702967272355e-06
-4.180816833376069e-05
-4.061452778145424e-05
3.622850243056616e-05
-9.329273072290403e-05
-1.3454429057032755e-05
-7.215638013104926e-05
-6.0866129654757447e-05
-4.768662595896758e-05
6.329343363244727e-05
-3.038021156483886e-05
-7.815330606751043e-05
7.584527806968914e-05
-5.613816507096858e-05
4.307602235939635e-05
-1.5386817003941213e-05
2.409740140992137e-05
-4.404786983230351e-05
-7.849833519195153e-06
1.7009689419671832e-05
5.671789125525439e-05
6.43807224720572e-05
-1.3219394870939513e-05
1.781402975349722e-05
-0.00010694686512908854
4.097016788961683e-05
-1.6159285355237327e-07
-4.425447240809589e-05
3.3405408979341105e-05
-3.23780883033924e-05
-3.755269828610312e-05
-3.1378562642403835e-05
5.295612900698404e-06
8.50971487473226e-06
