0
3.0487548468862373e-06
2.063422437946002e-05
-4.916367433230524e-05
3.776744793173272e-05
-4.3172547332685684e-05
-8.384274455864324e-05
-5.970852473823063e-05
-2.6068463375880813e-05
-2.5077793137212913e-05
4.5316890769522486e-05
-6.498618263652826e-05
-5.224790645763151e-05
2.6560641766314983e-05
-7.933554601487806e-05
-3.063746254662409e-05
-3.361587077329065e-07
2.330742371325666e-05
-2.621388704139865e-05
1.2506424502079601e-05
0.00010534078041740159
6.674284896456784e-05
1.9142970166777663e-06
5.0649373158706494e-06
-7.297207249073956e-05
4.7331406728319296e-05
0.00010732530953474883
-2.1029292364139937e-07
3.0704493263366184e-05
-3.798974108258482e-05
-1.0400498056870447e-05
-2.319997997888272e-05
7.219818492269253e-05
-1.2533115887773095e-05
1.11803581236998e-05
5.7150107688195316e-05
-4.1241501713690816e-05
-4.534469873362768e-06
-5.320839439189297e-06
6.587191178030934e-05
1.7240546646967825e-05
-2.3766017520169867e-05
-2.1509874319200095e-05
1.3998296012010758e-05
-3.26148324149581e-05
-5.390996681130056e-05
4.249113240340993e-05
-1.855940605643269e-05
2.568042883380361e-06
4.6156375824278914e-05
-1.636797087180968e-05
