0
4.415917312024489e-06
1.9118999212087067e-06
8.506220071258192e-05
7.36953163038987e-05
2.383567928508872e-05
3.613677040897021e-05
-3.6232281822874365e-05
2.046381485047511e-05
-4.775910416472087e-05
3.942799752574343e-05
-6.449446434148613e-05
1.7930850534039265e-05
-1.1677468456761611e-05
4.0212237509809746e-05
2.058903512771315e-06
-2.202741134366216e-05
1.8658803970988155e-05
4.2142619468521446e-05
6.166355224781061e-05
3.914757369924945e-05
1.4450648448123179e-05
-3.051953489469858e-05
-2.9781883550191332e-05
0.000112407100811696
1.6434876549302132e-05
6.302393342412512e-06
-1.5492802042362914e-05
-4.724989494902197e-05
-7.18792621876334e-05
-1.5929097483966055e-05
1.183196782661501e-05
2.1941043784415386e-05
8.997248611381199e-06
-6.430560947027606e-05
-3.29735809557976e-05
1.8974826438105567e-05
-2.5120802072388768e-06
3.998517905747294e-05
5.714500358785022e-06
-0.00010244287983869546
-6.924648301890117e-05
-0.0001460809562981511
-1.5931814935115297e-05
-8.058115012645271e-06
-1.8700400767017727e-05
2.187577685459496e-05
7.390354730452908e-05
1.175868912805802e-05
2.6865416644000562e-05
-2.9599975125779442e-05
