0
2.990208501156271e-06
-3.0365610058279897e-06
3.349696849266649e-05
8.702310356935116e-05
5.7412819230205414e-05
-0.00010477545825639419
-1.3546934075125699e-05
7.885495082211679e-05
1.3277505594607756e-05
6.268708690511592e-05
2.3427779261768785e-05
7.2188046888384765e-06
-8.066778326910495e-05
-7.514951661896128e-05
2.8674147429055085e-06
0.0001171298115644605
-4.275676275622791e-05
-8.563001891955701e-05
-6.145033420528609e-05
-5.821548094539396e-05
-2.561295268339624e-05
6.108840671639099e-05
4.605105852753147e-05
-9.760459862961233e-05
-2.8419342298277515e-05
-9.449934892760356e-05
-3.665997702391217e-05
1.1654246246107437e-05
-8.758815201537929e-05
1.620546140796858e-05
-3.950787247880253e-05
-1.5048079060587301e-05
-2.5869196068176715e-05
1.7269532835971214e-05
4.540520390303442e-05
-1.4950563656132718e-05
4.80668848203615e-05
9.014390716547938e-05
-2.4390221149680313e-05
-1.7529401827697555e-05
2.479759603593335e-05
2.2735415892290243e-07
-2.9063675692426282e-05
-5.7035428033488094e-05
-9.696461860632112e-05
-1.5221582922480588e-06
-3.9605453405827685e-05
-4.166734073846823e-05
-3.778973000535314e-05
6.199361357323858e-05
