0
3.392818362191722e-05
7.152464619532207e-05
-5.82476700415569e-05
5.625785409297227e-05
-3.754667013129995e-05
6.826725405666691e-05
-5.2085676849652274e-05
1.7163753244152342e-05
-6.0645817840190196e-05
3.8336081036402097e-05
3.826654149495231e-05
-8.09028365120462e-06
-3.155809120784967e-05
-1.2964947119005256e-05
6.706642065507727e-05
-9.922955809774094e-06
4.0551529837287487e-05
-8.661406527705258e-05
-0.0001036951487468497
-2.8499863204719315e-05
-8.265851333182484e-05
-4.1791804348851264e-05
4.0409790813129606e-05
3.634649381994415e-05
8.58998376809372e-06
2.9001606002302566e-06
3.560328498926574e-05
1.0610213040297121e-05
-2.2854327749292402e-05
-3.521519198014674e-05
7.054336882598861e-05
-9.206395929815814e-05
1.8094709190446677e-05
-2.6307205263761396e-05
-1.4985388738270726e-06
-4.726367311511084e-05
-1.5669688340445934e-05
-6.0307124833373216e-05
6.113405608577266e-05
-1.0451202402645199e-05
-4.227369751157317e-05
9.152936701222451e-05
-3.445596169993623e-05
6.311789688822088e-05
-2.4584433615950723e-05
2.3531835872373604e-05
5.052779860466769e-05
-3.210420744650148e-05
0.00010237744895105567
3.94681530533575e-05
