0
-6.444957506646246e-05
5.331059025044751e-05
-5.1808888134012916e-05
3.795636092452802e-05
1.5967666917279836e-05
7.198880987233772e-05
6.77489781869148e-06
2.8805829605014893e-05
3.9371692352892834e-06
1.9356945836538386e-05
-9.203336014685942e-05
5.4319473750223803e-05
-7.163284841564113e-05
1.963775697474478e-05
1.437187885322208e-05
2.4504035152481093e-05
-1.8396698036640457e-05
-3.525207161672421e-05
-2.5414783955334007e-05
3.0895966943389644e-05
-2.4739882522254306e-05
3.033946253406668e-05
5.665477684527358e-05
3.699068996687469e-05
1.788105330871685e-05
-7.90873805626235e-06
4.671068509804444e-06
-1.4932802149544193e-05
6.087390556298185e-05
-1.0093320140285405e-05
3.5294074128065405e-05
-2.2794557980764348e-05
5.2136186765331916e-05
-2.9368261193452525e-05
4.0959151015728485e-05
9.995572432623799e-06
5.6383151528110086e-05
3.684030475839304e-06
-4.516036084920345e-05
-4.928613778429533e-05
1.3195555570788664e-05
3.5802688345660054e-05
1.8892339886605593e-05
1.5344743754611522e-05
8.026561325530852e-05
4.521925116534662e-05
-9.470100080093435e-05
-5.892653008229101e-05
4.3002277729975125e-05
3.7348206657296356e-06
